17 128
row:1 -0.055146 -0.133800 -0.051671 0.196821 -0.096243 0.095374 -0.065290 0.000101 -0.066049 0.073256 -0.048631 0.014746 0.023374 0.132155 -0.095890 0.058564 0.053802 0.112559 -0.123770 -0.001940 -0.072268 0.027339 -0.033978 0.110777 -0.265248 -0.043612 -0.127723 -0.121067 -0.111498 0.141874 0.089352 0.128733 0.074232 -0.041490 0.147294 0.037644 -0.146557 -0.072658 -0.101785 0.038162 -0.056090 -0.080753 -0.051732 0.049708 0.008323 0.072249 -0.075142 0.031764 0.053538 0.028427 0.105901 0.004544 0.037560 0.068412 0.198715 -0.006257 0.060119 0.041939 -0.044741 0.097934 0.055944 -0.050999 -0.056267 -0.013007 0.172155 0.015752 -0.054872 -0.078611 0.028470 -0.006862 -0.012009 0.150289 0.081611 0.142235 0.182865 0.159186 -0.031959 0.054410 -0.034727 0.093329 -0.040145 -0.092782 0.002410 0.014610 -0.019551 -0.069735 -0.052249 -0.033082 -0.127865 -0.020955 0.214635 -0.254694 0.169701 0.080624 -0.123482 0.128234 0.046030 -0.058063 0.049095 -0.076549 -0.141727 -0.069663 -0.062635 0.222922 0.174704 0.084149 0.097253 0.231523 0.012479 -0.194999 0.109462 -0.072108 -0.154529 -0.176453 -0.067406 0.236724 0.100401 0.029378 -0.085673 0.148110 0.205570 -0.059295 0.077198 0.082226 -0.119992 -0.009958 0.077072 0.092781
two -0.057465 -0.126875 -0.051563 0.189429 -0.092619 0.089907 -0.064650 0.000630 -0.061084 0.066962 -0.047872 0.011429 0.026302 0.131105 -0.087559 0.059766 0.053204 0.106338 -0.122933 -0.006408 -0.072099 0.028034 -0.030687 0.112880 -0.259178 -0.042056 -0.129583 -0.114426 -0.111448 0.142095 0.082263 0.119854 0.073463 -0.042796 0.143948 0.039557 -0.144047 -0.067520 -0.098584 0.040256 -0.051012 -0.080036 -0.048571 0.049552 0.009797 0.068965 -0.068454 0.030856 0.047219 0.027026 0.098972 0.008822 0.037092 0.064652 0.187532 -0.007565 0.058549 0.044467 -0.038965 0.095573 0.057460 -0.047236 -0.060563 -0.009547 0.165923 0.014883 -0.060853 -0.073368 0.026002 -0.008550 -0.015369 0.150172 0.077082 0.138085 0.175751 0.158042 -0.023258 0.053240 -0.033637 0.088352 -0.032796 -0.090646 0.003837 0.014639 -0.019951 -0.073236 -0.048173 -0.036061 -0.127404 -0.025580 0.208793 -0.248138 0.164120 0.079530 -0.123847 0.129649 0.049205 -0.059191 0.044231 -0.074088 -0.135724 -0.066932 -0.059705 0.215786 0.167901 0.091627 0.095433 0.227193 0.009043 -0.188429 0.105895 -0.071177 -0.149713 -0.170315 -0.066474 0.229958 0.097485 0.028753 -0.085236 0.143364 0.192666 -0.060668 0.082444 0.080988 -0.118459 -0.005755 0.069589 0.085715
col:col3 -0.062061 -0.134310 -0.056389 0.204311 -0.104207 0.097638 -0.071131 0.001736 -0.065613 0.074813 -0.047537 0.014134 0.030328 0.137341 -0.097164 0.061552 0.051841 0.117064 -0.131322 -0.002678 -0.077264 0.025444 -0.038930 0.120296 -0.279968 -0.049556 -0.137906 -0.118332 -0.116217 0.145659 0.086307 0.135211 0.083992 -0.041489 0.153882 0.041135 -0.150991 -0.075567 -0.105574 0.038886 -0.053967 -0.085608 -0.056973 0.049963 0.009394 0.071105 -0.079254 0.030535 0.050777 0.034538 0.108009 0.006162 0.045017 0.068276 0.202411 -0.005517 0.065840 0.048318 -0.045267 0.100557 0.057905 -0.056052 -0.064020 -0.015216 0.176967 0.018295 -0.065357 -0.073875 0.028005 -0.015966 -0.016530 0.158298 0.086170 0.148178 0.189382 0.171463 -0.024846 0.055431 -0.037331 0.099857 -0.035332 -0.100240 0.006204 0.017232 -0.018551 -0.077174 -0.052706 -0.040987 -0.136044 -0.026243 0.222782 -0.263951 0.179475 0.089465 -0.127357 0.136671 0.051307 -0.063126 0.051829 -0.079525 -0.145417 -0.073381 -0.064692 0.225827 0.183421 0.092677 0.106541 0.237767 0.011979 -0.200210 0.113541 -0.077620 -0.162695 -0.180237 -0.069469 0.242749 0.109421 0.031378 -0.091924 0.149573 0.211193 -0.062818 0.086333 0.087584 -0.130460 -0.002600 0.074280 0.091999
three -0.067140 -0.132427 -0.057671 0.203494 -0.098864 0.102230 -0.067771 0.005949 -0.070633 0.070845 -0.051196 0.015635 0.027418 0.140260 -0.097579 0.066094 0.055907 0.116368 -0.126494 -0.005473 -0.083680 0.026986 -0.036375 0.119472 -0.282917 -0.050619 -0.140456 -0.124717 -0.121165 0.150543 0.090690 0.132755 0.081547 -0.045382 0.155943 0.040077 -0.147360 -0.072031 -0.104329 0.048016 -0.061240 -0.086313 -0.055546 0.050844 0.013403 0.072778 -0.076208 0.035945 0.053811 0.035172 0.111327 0.006907 0.039914 0.065625 0.208447 -0.011892 0.068809 0.043800 -0.047479 0.104186 0.061991 -0.049383 -0.062498 -0.010551 0.181654 0.020272 -0.064204 -0.079944 0.028958 -0.014993 -0.018034 0.160228 0.079452 0.150783 0.194869 0.170770 -0.025129 0.053890 -0.036402 0.095572 -0.037225 -0.102333 0.002313 0.017039 -0.020827 -0.071507 -0.052194 -0.037287 -0.134896 -0.021388 0.227621 -0.264985 0.182395 0.083084 -0.133586 0.135793 0.050962 -0.063902 0.052069 -0.079847 -0.149154 -0.068671 -0.062327 0.229476 0.186164 0.097609 0.105956 0.245314 0.009487 -0.207155 0.119199 -0.078999 -0.165742 -0.187671 -0.068155 0.243834 0.106622 0.027147 -0.087880 0.155577 0.213795 -0.060702 0.090983 0.088605 -0.129128 -0.007068 0.079984 0.092393
row:2 -0.062220 -0.133128 -0.056682 0.195676 -0.095012 0.098436 -0.066820 0.005909 -0.068849 0.072214 -0.046792 0.015554 0.026346 0.131620 -0.092196 0.063065 0.052749 0.111626 -0.120828 0.000112 -0.079848 0.030647 -0.033229 0.114496 -0.267279 -0.050309 -0.131595 -0.118595 -0.116346 0.141829 0.089327 0.126129 0.072503 -0.042182 0.144781 0.038358 -0.145577 -0.069311 -0.100748 0.044963 -0.056193 -0.076505 -0.052900 0.048008 0.010919 0.075968 -0.074068 0.030791 0.049817 0.034837 0.103644 0.007545 0.044301 0.065556 0.199164 -0.012920 0.064084 0.042711 -0.043560 0.099799 0.057867 -0.052421 -0.057931 -0.017056 0.171865 0.017689 -0.062485 -0.074975 0.023486 -0.015979 -0.008086 0.154395 0.080032 0.140814 0.182061 0.162076 -0.029951 0.053978 -0.039976 0.089544 -0.033339 -0.092470 0.003297 0.016068 -0.018056 -0.071364 -0.052699 -0.036629 -0.125738 -0.020707 0.217455 -0.250948 0.172268 0.084806 -0.123024 0.129275 0.049876 -0.058825 0.047790 -0.080238 -0.135188 -0.067353 -0.059579 0.223926 0.171315 0.091737 0.098982 0.230407 0.012454 -0.196920 0.113658 -0.073878 -0.152127 -0.177826 -0.060443 0.239951 0.101835 0.025996 -0.082408 0.145031 0.202987 -0.059203 0.083910 0.084403 -0.124823 -0.008420 0.075137 0.090881
col:col5 -0.058892 -0.140992 -0.052452 0.202434 -0.101591 0.100999 -0.068888 0.001227 -0.062358 0.075461 -0.046484 0.017381 0.028573 0.134768 -0.099715 0.065188 0.059266 0.115859 -0.126419 0.000943 -0.076812 0.028460 -0.038139 0.121263 -0.273984 -0.048190 -0.140432 -0.120079 -0.113053 0.146850 0.083051 0.133978 0.079135 -0.039119 0.153111 0.035336 -0.155898 -0.077339 -0.098318 0.037743 -0.049897 -0.081045 -0.051035 0.046589 0.013237 0.067715 -0.076411 0.022810 0.056730 0.033960 0.115231 0.006141 0.048259 0.068362 0.196103 -0.007324 0.063975 0.046896 -0.052080 0.100586 0.062640 -0.055228 -0.063506 -0.019153 0.174569 0.013317 -0.058650 -0.079915 0.022451 -0.011795 -0.012880 0.157110 0.084174 0.152497 0.184968 0.165482 -0.034956 0.054144 -0.038965 0.098199 -0.035173 -0.099169 -0.001550 0.014379 -0.017578 -0.072803 -0.050396 -0.036352 -0.133633 -0.021910 0.217550 -0.267326 0.168948 0.090966 -0.132297 0.129702 0.048444 -0.061151 0.052280 -0.087971 -0.151609 -0.068752 -0.064880 0.234194 0.185633 0.084594 0.096928 0.241258 0.015244 -0.203671 0.112968 -0.080976 -0.160184 -0.176758 -0.064119 0.249687 0.108690 0.027446 -0.090995 0.149884 0.215606 -0.058142 0.085476 0.084844 -0.128499 -0.008579 0.078538 0.095492
col:col2 -0.065346 -0.133092 -0.051111 0.198382 -0.102893 0.095747 -0.071551 -0.000494 -0.070143 0.070946 -0.046854 0.016570 0.026333 0.131759 -0.099152 0.060853 0.056471 0.115681 -0.127483 -0.008104 -0.081125 0.032803 -0.029835 0.121112 -0.278867 -0.052468 -0.133007 -0.119594 -0.116927 0.143893 0.092634 0.128888 0.077200 -0.044749 0.157402 0.038762 -0.149902 -0.070786 -0.106200 0.045594 -0.054527 -0.084025 -0.056061 0.046563 0.010084 0.078223 -0.080741 0.027982 0.055961 0.035737 0.105572 0.011546 0.044569 0.068375 0.202920 -0.011156 0.069783 0.043685 -0.044761 0.103304 0.057257 -0.049878 -0.064122 -0.012474 0.181699 0.023135 -0.067495 -0.080588 0.024503 -0.013755 -0.019006 0.156655 0.082254 0.144093 0.186288 0.170369 -0.023520 0.058187 -0.035705 0.100475 -0.036355 -0.095749 0.007660 0.017403 -0.017082 -0.073261 -0.054044 -0.039438 -0.132339 -0.027701 0.223208 -0.265161 0.182891 0.085900 -0.125646 0.137879 0.050532 -0.065252 0.050678 -0.081808 -0.143185 -0.070239 -0.061411 0.230678 0.177678 0.094888 0.105980 0.242809 0.010603 -0.196574 0.115920 -0.074357 -0.160568 -0.181580 -0.071005 0.247054 0.105670 0.030070 -0.087897 0.146023 0.212690 -0.060764 0.088697 0.085862 -0.123113 -0.007780 0.074125 0.088843
one -0.066294 -0.139613 -0.058004 0.199617 -0.103719 0.101259 -0.074144 0.000852 -0.072351 0.073130 -0.050415 0.014447 0.024381 0.137885 -0.102429 0.067038 0.051675 0.113782 -0.130087 -0.005568 -0.082645 0.029768 -0.039752 0.119689 -0.282223 -0.050205 -0.133438 -0.126358 -0.118032 0.147146 0.090685 0.133967 0.079987 -0.048080 0.157664 0.042915 -0.152816 -0.072778 -0.106252 0.045698 -0.059516 -0.080494 -0.056289 0.052118 0.010335 0.078555 -0.077478 0.027623 0.053008 0.031877 0.113586 0.008805 0.043387 0.069578 0.205503 -0.010179 0.068468 0.044782 -0.045941 0.101437 0.058948 -0.050691 -0.060656 -0.011591 0.179642 0.016326 -0.065916 -0.078152 0.022422 -0.014698 -0.012994 0.157316 0.085196 0.146839 0.191940 0.168408 -0.027105 0.056833 -0.037294 0.098908 -0.035388 -0.100090 0.005771 0.013456 -0.022907 -0.075634 -0.056255 -0.037149 -0.138408 -0.022825 0.224940 -0.265073 0.180242 0.087418 -0.130430 0.137595 0.049097 -0.066207 0.047594 -0.086278 -0.147720 -0.071718 -0.063082 0.233999 0.186088 0.090221 0.108865 0.244828 0.012474 -0.199976 0.112570 -0.073865 -0.161068 -0.186733 -0.070795 0.251207 0.106615 0.031273 -0.090286 0.150207 0.209970 -0.059553 0.088980 0.082554 -0.131749 -0.003622 0.079937 0.094372
26 -0.058957 -0.134150 -0.059667 0.205191 -0.101060 0.099230 -0.074478 0.001715 -0.070448 0.073424 -0.055140 0.020913 0.025441 0.139042 -0.099008 0.062112 0.057137 0.116199 -0.127150 -0.000696 -0.081234 0.031951 -0.033273 0.118471 -0.281790 -0.047458 -0.137207 -0.126921 -0.121574 0.150430 0.093531 0.137145 0.083112 -0.047114 0.156146 0.036836 -0.154792 -0.073357 -0.103877 0.040516 -0.058517 -0.086404 -0.057022 0.052421 0.008460 0.080909 -0.078372 0.030468 0.055695 0.030306 0.113991 0.007189 0.039691 0.065903 0.206918 -0.005760 0.066293 0.047483 -0.047005 0.106165 0.062411 -0.051768 -0.064479 -0.017593 0.181743 0.014382 -0.058214 -0.082647 0.027526 -0.008461 -0.011722 0.155890 0.080982 0.151518 0.192309 0.165297 -0.027529 0.057435 -0.035651 0.098316 -0.041426 -0.099810 -0.000157 0.018930 -0.015721 -0.076765 -0.049889 -0.034624 -0.133752 -0.024947 0.223643 -0.265102 0.178422 0.089309 -0.131387 0.134683 0.053064 -0.063419 0.050716 -0.082603 -0.148520 -0.066274 -0.065756 0.232826 0.182098 0.095047 0.108529 0.238713 0.013086 -0.203505 0.119620 -0.078485 -0.155001 -0.185807 -0.066751 0.245509 0.103624 0.025124 -0.092638 0.147742 0.215085 -0.063492 0.082075 0.083153 -0.128034 -0.009993 0.075449 0.092614
50 -0.057593 -0.139518 -0.058476 0.196958 -0.097126 0.098337 -0.074871 0.001450 -0.069756 0.075532 -0.054784 0.015392 0.020802 0.138428 -0.101390 0.061414 0.057235 0.117855 -0.131801 -0.002422 -0.077632 0.028589 -0.039888 0.120188 -0.281546 -0.043544 -0.138264 -0.126316 -0.122786 0.144549 0.092897 0.135403 0.074922 -0.038481 0.151574 0.036270 -0.154085 -0.076208 -0.101905 0.040773 -0.059891 -0.077835 -0.050994 0.050197 0.015357 0.074621 -0.070974 0.027689 0.055062 0.029536 0.108231 0.006058 0.044803 0.071102 0.199280 -0.006110 0.061054 0.043517 -0.044693 0.103447 0.062216 -0.049167 -0.057145 -0.016346 0.177557 0.010905 -0.057652 -0.084850 0.023713 -0.014386 -0.008005 0.159934 0.081598 0.145440 0.187076 0.167592 -0.033930 0.061837 -0.044431 0.091530 -0.039561 -0.102270 0.000726 0.018240 -0.016215 -0.075867 -0.055322 -0.032150 -0.136091 -0.024722 0.226029 -0.263300 0.169463 0.087870 -0.130476 0.131393 0.050744 -0.059304 0.044693 -0.084090 -0.146568 -0.069813 -0.066528 0.227116 0.186610 0.086735 0.100587 0.235088 0.013676 -0.205565 0.116536 -0.080272 -0.156471 -0.180118 -0.069965 0.246322 0.105747 0.028665 -0.091062 0.152988 0.216376 -0.057643 0.084849 0.082211 -0.130149 -0.011940 0.081119 0.090805
row:0 -0.063277 -0.138504 -0.055027 0.201884 -0.094006 0.095793 -0.067378 0.006003 -0.064033 0.072582 -0.056058 0.022121 0.018190 0.141913 -0.101077 0.066483 0.053296 0.120952 -0.133560 0.000870 -0.082034 0.035926 -0.039492 0.112187 -0.280885 -0.046866 -0.132660 -0.123563 -0.124027 0.141106 0.091537 0.133684 0.076870 -0.044302 0.149826 0.034948 -0.147676 -0.081273 -0.093469 0.042390 -0.061675 -0.081328 -0.051187 0.051907 0.014478 0.077633 -0.070648 0.027108 0.056698 0.037693 0.117533 0.011752 0.045401 0.069479 0.204147 -0.012434 0.055650 0.051663 -0.048165 0.098892 0.062613 -0.045155 -0.055632 -0.016886 0.177354 0.009527 -0.063353 -0.083430 0.022374 -0.014020 -0.005006 0.157038 0.082237 0.145609 0.195745 0.163620 -0.033008 0.064201 -0.047258 0.094564 -0.039631 -0.106243 -0.001504 0.016620 -0.018920 -0.074674 -0.052401 -0.025619 -0.134871 -0.026225 0.225489 -0.265605 0.168713 0.090458 -0.132403 0.132075 0.044137 -0.060980 0.042077 -0.091525 -0.144250 -0.066894 -0.068900 0.232727 0.185838 0.090057 0.107521 0.234578 0.014540 -0.206881 0.112679 -0.077317 -0.157986 -0.186889 -0.066876 0.253018 0.096154 0.024141 -0.090835 0.151021 0.215421 -0.060156 0.080091 0.081896 -0.129425 -0.016538 0.081383 0.094657
col:col1 -0.060394 -0.125903 -0.050201 0.185121 -0.087397 0.094861 -0.072554 0.005926 -0.063402 0.067217 -0.053916 0.014948 0.023403 0.133230 -0.094752 0.058642 0.054108 0.108155 -0.125210 -0.005915 -0.079120 0.024878 -0.034972 0.103647 -0.254872 -0.039552 -0.119977 -0.110669 -0.115237 0.136070 0.088675 0.129383 0.069123 -0.040318 0.143657 0.033998 -0.137955 -0.066536 -0.094380 0.041168 -0.056144 -0.079295 -0.055660 0.044364 0.005940 0.077345 -0.072174 0.025850 0.052036 0.029700 0.104042 0.011800 0.038595 0.060080 0.193295 -0.007745 0.052712 0.044804 -0.042154 0.092965 0.062530 -0.047720 -0.058701 -0.013177 0.159934 0.008912 -0.056342 -0.076727 0.029502 -0.011507 -0.011517 0.149687 0.073670 0.139565 0.176872 0.149464 -0.026534 0.054440 -0.040827 0.081052 -0.040967 -0.093305 0.003298 0.012032 -0.017350 -0.070063 -0.046564 -0.028449 -0.122062 -0.019776 0.209912 -0.241772 0.159804 0.078169 -0.116622 0.122136 0.048989 -0.055450 0.043178 -0.075667 -0.131731 -0.068232 -0.059387 0.214132 0.169141 0.079571 0.100721 0.221966 0.014652 -0.183601 0.106959 -0.071480 -0.141520 -0.171306 -0.061113 0.227917 0.086634 0.019352 -0.076380 0.139378 0.195061 -0.058960 0.075150 0.079853 -0.116026 -0.013064 0.067249 0.082136
col:col4 -0.057874 -0.133473 -0.054548 0.188397 -0.090983 0.097822 -0.074709 0.003472 -0.068080 0.073934 -0.053598 0.019128 0.017807 0.133858 -0.098854 0.058444 0.054727 0.112033 -0.129475 -0.002704 -0.078787 0.026134 -0.039764 0.106954 -0.271161 -0.041274 -0.127178 -0.118414 -0.116596 0.136591 0.085175 0.132239 0.070946 -0.035723 0.142639 0.037871 -0.142061 -0.076478 -0.096029 0.042641 -0.055469 -0.080361 -0.055783 0.050663 0.011674 0.076112 -0.067292 0.023717 0.048247 0.028978 0.103511 0.005468 0.043925 0.066024 0.195018 -0.006950 0.054703 0.048980 -0.046939 0.099788 0.061203 -0.049481 -0.059783 -0.009341 0.170348 0.010429 -0.058408 -0.082115 0.027198 -0.010722 -0.010030 0.154545 0.078814 0.142405 0.183786 0.154622 -0.032376 0.056141 -0.046089 0.087947 -0.034821 -0.096449 0.005206 0.013596 -0.020988 -0.067336 -0.046778 -0.026579 -0.128124 -0.017919 0.213517 -0.253509 0.164508 0.083930 -0.124643 0.125745 0.046594 -0.062242 0.044436 -0.079263 -0.138011 -0.068624 -0.065047 0.218742 0.179508 0.081432 0.103764 0.230780 0.014836 -0.196422 0.110502 -0.075179 -0.146205 -0.171542 -0.069325 0.237033 0.095544 0.024249 -0.082997 0.143942 0.206647 -0.056249 0.078249 0.079548 -0.121975 -0.013562 0.072289 0.088401
1 -0.056916 -0.138168 -0.058245 0.198255 -0.090838 0.099177 -0.071482 0.006299 -0.064021 0.073874 -0.052809 0.016154 0.020920 0.135790 -0.096062 0.059557 0.052171 0.117264 -0.131431 0.000910 -0.077123 0.031670 -0.041613 0.108288 -0.273388 -0.047657 -0.134597 -0.119085 -0.114633 0.134401 0.088085 0.133546 0.070661 -0.036759 0.146003 0.036548 -0.141454 -0.078308 -0.098881 0.039987 -0.054500 -0.081513 -0.053818 0.050667 0.013371 0.071893 -0.070704 0.022459 0.049706 0.033891 0.114221 0.008872 0.040842 0.064944 0.200406 -0.011090 0.055467 0.045491 -0.051920 0.097062 0.061319 -0.048993 -0.055618 -0.010320 0.172557 0.008765 -0.060159 -0.085449 0.021585 -0.015233 -0.005652 0.154600 0.077781 0.147686 0.189115 0.156499 -0.035978 0.061311 -0.047478 0.093124 -0.041500 -0.103099 0.001411 0.014586 -0.020465 -0.069839 -0.050672 -0.026096 -0.135020 -0.020331 0.220181 -0.258483 0.166968 0.089009 -0.128303 0.127407 0.046567 -0.060341 0.045763 -0.086995 -0.142655 -0.070709 -0.068419 0.227471 0.184616 0.082388 0.104507 0.233840 0.011020 -0.200503 0.108395 -0.074796 -0.150830 -0.177812 -0.067789 0.243124 0.097251 0.024264 -0.086781 0.145672 0.213676 -0.060719 0.079875 0.085789 -0.124348 -0.014016 0.081189 0.092318
b -0.059931 -0.132169 -0.051666 0.198476 -0.097761 0.098520 -0.067557 -0.000644 -0.063426 0.076469 -0.045804 0.010553 0.024446 0.130240 -0.091968 0.061394 0.052217 0.116778 -0.124169 -0.004932 -0.073304 0.032304 -0.030438 0.119717 -0.267736 -0.044477 -0.135504 -0.121894 -0.116603 0.141977 0.085686 0.128766 0.072207 -0.039298 0.146592 0.041060 -0.152386 -0.070736 -0.102649 0.035804 -0.051494 -0.076457 -0.054183 0.045549 0.013253 0.068035 -0.072658 0.025512 0.056595 0.025478 0.110815 0.008784 0.043892 0.069790 0.197315 -0.010586 0.060020 0.042188 -0.045371 0.101101 0.055883 -0.050481 -0.061960 -0.016042 0.175019 0.011775 -0.061499 -0.078262 0.021828 -0.007402 -0.016436 0.150303 0.080214 0.148831 0.179530 0.159611 -0.026914 0.052680 -0.032649 0.096617 -0.037150 -0.095480 0.001554 0.014600 -0.014817 -0.073099 -0.049559 -0.029889 -0.134592 -0.027005 0.211949 -0.259892 0.166629 0.086067 -0.122972 0.132575 0.047277 -0.058455 0.050819 -0.083941 -0.147546 -0.064174 -0.065900 0.225911 0.179921 0.089335 0.099524 0.233926 0.007107 -0.198938 0.112006 -0.078745 -0.157662 -0.173103 -0.067805 0.239155 0.102598 0.030930 -0.087052 0.151254 0.210231 -0.060942 0.079639 0.079188 -0.122354 -0.004737 0.076824 0.091906
a -0.056154 -0.132094 -0.051996 0.194002 -0.095202 0.092565 -0.065110 0.006202 -0.064283 0.070558 -0.045915 0.015573 0.027313 0.129431 -0.095370 0.057937 0.050178 0.114795 -0.117850 -0.001143 -0.070831 0.031148 -0.031168 0.111495 -0.260731 -0.041863 -0.127086 -0.114536 -0.111433 0.134511 0.080897 0.123536 0.076606 -0.045738 0.146150 0.036766 -0.145764 -0.073494 -0.095583 0.041237 -0.053087 -0.074118 -0.051323 0.042356 0.014154 0.066414 -0.070592 0.025237 0.048262 0.030106 0.110165 0.003734 0.043027 0.063691 0.189376 -0.005385 0.061296 0.044504 -0.045895 0.096979 0.056842 -0.045415 -0.061455 -0.017076 0.171854 0.014830 -0.062150 -0.078755 0.024817 -0.009933 -0.017717 0.147672 0.076925 0.139982 0.180075 0.154739 -0.022995 0.056762 -0.037055 0.094083 -0.035041 -0.094922 -0.001659 0.011082 -0.018576 -0.068262 -0.047253 -0.035201 -0.123872 -0.025585 0.205846 -0.251276 0.164126 0.081691 -0.120009 0.123229 0.049445 -0.057391 0.045012 -0.080179 -0.142615 -0.063090 -0.064950 0.217527 0.171108 0.083223 0.098048 0.224031 0.013134 -0.190586 0.111084 -0.069810 -0.152256 -0.171602 -0.061400 0.235629 0.101802 0.028707 -0.085812 0.144058 0.204332 -0.060391 0.076840 0.076169 -0.116668 -0.003713 0.078094 0.092506
c -0.067381 -0.137303 -0.055774 0.205280 -0.102765 0.101069 -0.072050 0.007509 -0.067197 0.080788 -0.046788 0.013467 0.026342 0.139839 -0.102779 0.067757 0.052790 0.120781 -0.134468 -0.003759 -0.079665 0.028106 -0.039645 0.125453 -0.284127 -0.046494 -0.144130 -0.124871 -0.123946 0.153062 0.091466 0.132814 0.082148 -0.048173 0.158156 0.037834 -0.156014 -0.076215 -0.103074 0.043920 -0.056876 -0.082855 -0.058620 0.046796 0.008811 0.077283 -0.079214 0.033920 0.056427 0.036789 0.119037 0.011418 0.044431 0.071258 0.208095 -0.009994 0.061176 0.050987 -0.053089 0.106953 0.065294 -0.059464 -0.063416 -0.013835 0.182555 0.018680 -0.057789 -0.079953 0.023784 -0.010401 -0.014714 0.160304 0.080057 0.156121 0.193665 0.171460 -0.034694 0.061434 -0.038698 0.097714 -0.035972 -0.098498 0.004705 0.019645 -0.020458 -0.073117 -0.050790 -0.034674 -0.141233 -0.027459 0.229756 -0.272099 0.178390 0.087170 -0.135211 0.134354 0.050513 -0.061657 0.047982 -0.088529 -0.151546 -0.072990 -0.067124 0.239415 0.189782 0.095867 0.107154 0.246556 0.008347 -0.209584 0.120785 -0.084331 -0.166131 -0.186939 -0.066597 0.252291 0.108961 0.024295 -0.095089 0.153709 0.218484 -0.061703 0.090236 0.082994 -0.133099 -0.002705 0.081968 0.092924
